<?xml version="1.0"?>
<opencv_storage>
<cascade>
  <stageType>BOOST</stageType>
  <featureType>HAAR</featureType>
  <height>24</height>
  <width>24</width>
  <stageParams>
    <boostType>GAB</boostType>
    <minHitRate>9.9500000476837158e-01</minHitRate>
    <maxFalseAlarm>5.0000000000000000e-01</maxFalseAlarm>
    <weightTrimRate>9.4999998807907104e-01</weightTrimRate>
    <maxDepth>1</maxDepth>
    <maxWeakCount>100</maxWeakCount></stageParams>
  <featureParams>
    <maxCatCount>0</maxCatCount>
    <featSize>1</featSize>
    <mode>BASIC</mode></featureParams>
  <stageNum>8</stageNum>
  <stages>
    <!-- stage 0 -->
    <_>
      <maxWeakCount>1</maxWeakCount>
      <stageThreshold>9.0954774618148804e-01</stageThreshold>
      <weakClassifiers>
        <_>
          <internalNodes>
            0 -1 13 1.7094086855649948e-02</internalNodes>
          <leafValues>
            -1. 9.0954774618148804e-01</leafValues></_></weakClassifiers></_>
    <!-- stage 1 -->
    <_>
      <maxWeakCount>2</maxWeakCount>
      <stageThreshold>-9.7803115844726563e-02</stageThreshold>
      <weakClassifiers>
        <_>
          <internalNodes>
            0 -1 0 -4.6885180473327637e-01</internalNodes>
          <leafValues>
            9.2820513248443604e-01 -9.9204772710800171e-01</leafValues></_>
        <_>
          <internalNodes>
            0 -1 9 -8.3976708352565765e-02</internalNodes>
          <leafValues>
            8.9424461126327515e-01 -1.</leafValues></_></weakClassifiers></_>
    <!-- stage 2 -->
    <_>
      <maxWeakCount>1</maxWeakCount>
      <stageThreshold>8.4466022253036499e-01</stageThreshold>
      <weakClassifiers>
        <_>
          <internalNodes>
            0 -1 2 -1.9635649397969246e-02</internalNodes>
          <leafValues>
            8.4466022253036499e-01 -1.</leafValues></_></weakClassifiers></_>
    <!-- stage 3 -->
    <_>
      <maxWeakCount>2</maxWeakCount>
      <stageThreshold>-3.5537883639335632e-01</stageThreshold>
      <weakClassifiers>
        <_>
          <internalNodes>
            0 -1 8 -6.3577346503734589e-02</internalNodes>
          <leafValues>
            7.6699030399322510e-01 -9.6747964620590210e-01</leafValues></_>
        <_>
          <internalNodes>
            0 -1 3 -1.6504609584808350e-01</internalNodes>
          <leafValues>
            6.1210083961486816e-01 -9.8251801729202271e-01</leafValues></_></weakClassifiers></_>
    <!-- stage 4 -->
    <_>
      <maxWeakCount>2</maxWeakCount>
      <stageThreshold>-5.3695750236511230e-01</stageThreshold>
      <weakClassifiers>
        <_>
          <internalNodes>
            0 -1 7 -1.7979294061660767e-01</internalNodes>
          <leafValues>
            3.9325842261314392e-01 -9.8143851757049561e-01</leafValues></_>
        <_>
          <internalNodes>
            0 -1 4 1.3318796455860138e-01</internalNodes>
          <leafValues>
            -9.3021589517593384e-01 5.4626667499542236e-01</leafValues></_></weakClassifiers></_>
    <!-- stage 5 -->
    <_>
      <maxWeakCount>2</maxWeakCount>
      <stageThreshold>-4.4945958256721497e-01</stageThreshold>
      <weakClassifiers>
        <_>
          <internalNodes>
            0 -1 1 -1.1768907308578491e-02</internalNodes>
          <leafValues>
            5.0697672367095947e-01 -8.8405799865722656e-01</leafValues></_>
        <_>
          <internalNodes>
            0 -1 12 3.5165868699550629e-02</internalNodes>
          <leafValues>
            -9.5643633604049683e-01 4.5879808068275452e-01</leafValues></_></weakClassifiers></_>
    <!-- stage 6 -->
    <_>
      <maxWeakCount>2</maxWeakCount>
      <stageThreshold>-4.1452470421791077e-01</stageThreshold>
      <weakClassifiers>
        <_>
          <internalNodes>
            0 -1 5 -4.6524520963430405e-02</internalNodes>
          <leafValues>
            4.3750000000000000e-01 -8.7763714790344238e-01</leafValues></_>
        <_>
          <internalNodes>
            0 -1 10 3.8690869696438313e-03</internalNodes>
          <leafValues>
            -8.5202467441558838e-01 6.5455645322799683e-01</leafValues></_></weakClassifiers></_>
    <!-- stage 7 -->
    <_>
      <maxWeakCount>2</maxWeakCount>
      <stageThreshold>-6.9234955310821533e-01</stageThreshold>
      <weakClassifiers>
        <_>
          <internalNodes>
            0 -1 11 -2.5995966047048569e-02</internalNodes>
          <leafValues>
            3.0103805661201477e-01 -9.9022006988525391e-01</leafValues></_>
        <_>
          <internalNodes>
            0 -1 6 9.3604661524295807e-03</internalNodes>
          <leafValues>
            -9.9338757991790771e-01 3.8009783625602722e-01</leafValues></_></weakClassifiers></_></stages>
  <features>
    <_>
      <rects>
        <_>
          0 0 22 20 -1.</_>
        <_>
          0 10 22 10 2.</_></rects>
      <tilted>0</tilted></_>
    <_>
      <rects>
        <_>
          0 3 2 6 -1.</_>
        <_>
          1 3 1 6 2.</_></rects>
      <tilted>0</tilted></_>
    <_>
      <rects>
        <_>
          0 10 4 6 -1.</_>
        <_>
          2 10 2 6 2.</_></rects>
      <tilted>0</tilted></_>
    <_>
      <rects>
        <_>
          0 15 24 6 -1.</_>
        <_>
          8 15 8 6 3.</_></rects>
      <tilted>0</tilted></_>
    <_>
      <rects>
        <_>
          0 16 18 8 -1.</_>
        <_>
          0 20 18 4 2.</_></rects>
      <tilted>0</tilted></_>
    <_>
      <rects>
        <_>
          3 1 7 9 -1.</_>
        <_>
          3 4 7 3 3.</_></rects>
      <tilted>0</tilted></_>
    <_>
      <rects>
        <_>
          3 22 17 2 -1.</_>
        <_>
          3 23 17 1 2.</_></rects>
      <tilted>0</tilted></_>
    <_>
      <rects>
        <_>
          5 0 15 10 -1.</_>
        <_>
          5 5 15 5 2.</_></rects>
      <tilted>0</tilted></_>
    <_>
      <rects>
        <_>
          5 1 12 6 -1.</_>
        <_>
          5 4 12 3 2.</_></rects>
      <tilted>0</tilted></_>
    <_>
      <rects>
        <_>
          9 12 6 12 -1.</_>
        <_>
          9 16 6 4 3.</_></rects>
      <tilted>0</tilted></_>
    <_>
      <rects>
        <_>
          10 17 8 2 -1.</_>
        <_>
          10 18 8 1 2.</_></rects>
      <tilted>0</tilted></_>
    <_>
      <rects>
        <_>
          11 0 1 20 -1.</_>
        <_>
          11 10 1 10 2.</_></rects>
      <tilted>0</tilted></_>
    <_>
      <rects>
        <_>
          15 16 8 6 -1.</_>
        <_>
          19 16 4 6 2.</_></rects>
      <tilted>0</tilted></_>
    <_>
      <rects>
        <_>
          22 3 2 20 -1.</_>
        <_>
          23 3 1 20 2.</_></rects>
      <tilted>0</tilted></_></features></cascade>
</opencv_storage>
