<?xml version="1.0"?>
<opencv_storage>
<cascade>
  <stageType>BOOST</stageType>
  <featureType>HAAR</featureType>
  <height>24</height>
  <width>24</width>
  <stageParams>
    <boostType>GAB</boostType>
    <minHitRate>9.9500000476837158e-01</minHitRate>
    <maxFalseAlarm>5.0000000000000000e-01</maxFalseAlarm>
    <weightTrimRate>9.4999998807907104e-01</weightTrimRate>
    <maxDepth>1</maxDepth>
    <maxWeakCount>100</maxWeakCount></stageParams>
  <featureParams>
    <maxCatCount>0</maxCatCount>
    <featSize>1</featSize>
    <mode>BASIC</mode></featureParams>
  <stageNum>6</stageNum>
  <stages>
    <!-- stage 0 -->
    <_>
      <maxWeakCount>1</maxWeakCount>
      <stageThreshold>8.7545788288116455e-01</stageThreshold>
      <weakClassifiers>
        <_>
          <internalNodes>
            0 -1 9 -2.1825288236141205e-01</internalNodes>
          <leafValues>
            8.7545788288116455e-01 -1.</leafValues></_></weakClassifiers></_>
    <!-- stage 1 -->
    <_>
      <maxWeakCount>1</maxWeakCount>
      <stageThreshold>9.3207550048828125e-01</stageThreshold>
      <weakClassifiers>
        <_>
          <internalNodes>
            0 -1 0 -4.2941935360431671e-02</internalNodes>
          <leafValues>
            9.3207550048828125e-01 -1.</leafValues></_></weakClassifiers></_>
    <!-- stage 2 -->
    <_>
      <maxWeakCount>2</maxWeakCount>
      <stageThreshold>-3.1451696157455444e-01</stageThreshold>
      <weakClassifiers>
        <_>
          <internalNodes>
            0 -1 6 1.0285217314958572e-01</internalNodes>
          <leafValues>
            -9.4536817073822021e-01 7.3880594968795776e-01</leafValues></_>
        <_>
          <internalNodes>
            0 -1 10 6.1431027948856354e-02</internalNodes>
          <leafValues>
            -1. 6.3085120916366577e-01</leafValues></_></weakClassifiers></_>
    <!-- stage 3 -->
    <_>
      <maxWeakCount>2</maxWeakCount>
      <stageThreshold>-2.5136673450469971e-01</stageThreshold>
      <weakClassifiers>
        <_>
          <internalNodes>
            0 -1 3 -1.7426691949367523e-02</internalNodes>
          <leafValues>
            6.5131580829620361e-01 -9.8759305477142334e-01</leafValues></_>
        <_>
          <internalNodes>
            0 -1 4 3.7573549896478653e-02</internalNodes>
          <leafValues>
            -9.0268254280090332e-01 8.1530857086181641e-01</leafValues></_></weakClassifiers></_>
    <!-- stage 4 -->
    <_>
      <maxWeakCount>2</maxWeakCount>
      <stageThreshold>-5.4892688989639282e-01</stageThreshold>
      <weakClassifiers>
        <_>
          <internalNodes>
            0 -1 8 -1.5324248000979424e-02</internalNodes>
          <leafValues>
            6.7647057771682739e-01 -9.3317425251007080e-01</leafValues></_>
        <_>
          <internalNodes>
            0 -1 7 6.3534624874591827e-02</internalNodes>
          <leafValues>
            -9.7517871856689453e-01 3.8424736261367798e-01</leafValues></_></weakClassifiers></_>
    <!-- stage 5 -->
    <_>
      <maxWeakCount>3</maxWeakCount>
      <stageThreshold>-1.2949206829071045e+00</stageThreshold>
      <weakClassifiers>
        <_>
          <internalNodes>
            0 -1 5 -1.7901701852679253e-02</internalNodes>
          <leafValues>
            7.3390555381774902e-01 -8.7685292959213257e-01</leafValues></_>
        <_>
          <internalNodes>
            0 -1 1 -2.5405529886484146e-03</internalNodes>
          <leafValues>
            5.8971101045608521e-01 -8.9931505918502808e-01</leafValues></_>
        <_>
          <internalNodes>
            0 -1 2 3.4760923590511084e-03</internalNodes>
          <leafValues>
            -1. 4.8124730587005615e-01</leafValues></_></weakClassifiers></_></stages>
  <features>
    <_>
      <rects>
        <_>
          0 1 4 16 -1.</_>
        <_>
          2 1 2 16 2.</_></rects>
      <tilted>0</tilted></_>
    <_>
      <rects>
        <_>
          0 4 3 2 -1.</_>
        <_>
          1 4 1 2 3.</_></rects>
      <tilted>0</tilted></_>
    <_>
      <rects>
        <_>
          0 9 1 14 -1.</_>
        <_>
          0 16 1 7 2.</_></rects>
      <tilted>0</tilted></_>
    <_>
      <rects>
        <_>
          2 0 5 4 -1.</_>
        <_>
          2 2 5 2 2.</_></rects>
      <tilted>0</tilted></_>
    <_>
      <rects>
        <_>
          3 9 2 14 -1.</_>
        <_>
          3 16 2 7 2.</_></rects>
      <tilted>0</tilted></_>
    <_>
      <rects>
        <_>
          3 10 6 6 -1.</_>
        <_>
          3 10 3 3 2.</_>
        <_>
          6 13 3 3 2.</_></rects>
      <tilted>0</tilted></_>
    <_>
      <rects>
        <_>
          4 11 20 6 -1.</_>
        <_>
          14 11 10 6 2.</_></rects>
      <tilted>0</tilted></_>
    <_>
      <rects>
        <_>
          9 0 14 10 -1.</_>
        <_>
          9 0 7 5 2.</_>
        <_>
          16 5 7 5 2.</_></rects>
      <tilted>0</tilted></_>
    <_>
      <rects>
        <_>
          9 4 4 4 -1.</_>
        <_>
          9 6 4 2 2.</_></rects>
      <tilted>0</tilted></_>
    <_>
      <rects>
        <_>
          14 0 6 22 -1.</_>
        <_>
          14 11 6 11 2.</_></rects>
      <tilted>0</tilted></_>
    <_>
      <rects>
        <_>
          18 1 6 23 -1.</_>
        <_>
          21 1 3 23 2.</_></rects>
      <tilted>0</tilted></_></features></cascade>
</opencv_storage>
